-0.756159417287
0.888895115256
-0.521739866047
2.00612837024
-1.61611531738
1.63894585873
0.487711852037
1.25382343481
-1.45886633548
-0.084170002788
-1.45470422357
0.19026511045
1.05053554349
-1.02774092092
-1.10431066719
-0.990093723429
-0.495953977577
0.233494799879
0.424618889134
1.31170538715
0.150617906892
-0.308180481655
-0.0111416650596
0.928964153351
0.466369926001
-0.350708795442
-0.368546205713
0.153603445329
-1.81940999339
0.388965683439
0.392098513986
0.448524708347
-0.542028335977
1.16957455319
-1.24218278601
0.329240434678
0.0627171810624
-0.17501361965
-0.112237948393
0.335151242519
0.255429387228
-1.97702439162
-0.150413305955
-2.58586287957
-0.425531901184
-0.17228283826
-0.466213359471
1.06691933343
2.0433568145
-1.31946955266
1.41461042456
0.0444604950824
0.46078909579
3.66554488063
0.904728183691
-0.565882794095
0.935496384513
1.51438049819
0.112621287944
-1.12628500139
-0.763609912487
0.572566098408
-0.706086715862
1.16363254509
-0.241639639588
1.08848935373
1.52545509586
-1.75037200576
-1.89524651599
0.259838597781
1.29733027439
-0.63085817061
0.183327691971
-1.16145727354
0.0991114313752
-0.310352885806
-1.70374597443
-1.43637381932
0.942462850398
-0.670937143343
0.0134140640527
1.24970786944
0.290144695734
1.45254248193
0.434394058586
0.647096859548
-0.0389431108221
-0.774477696293
0.762658027759
-1.47235125115
0.417522630518
0.503027720306
-0.591288746975
0.98802350075
