-0.83299509536
0.0473718251802
0.755516550018
1.06877995176
-0.632356397781
0.352807243248
-0.962098727377
-0.231478363378
-0.753986230551
-0.0478307196735
-0.971721956855
-1.05781510279
-0.688845200095
1.50695365441
-0.102696221641
0.111173423918
-0.289375350093
1.52950210867
0.121336662447
0.293500770933
0.0456000522122
0.290390999575
0.308734347772
1.08687443047
0.287885374564
-0.642700352339
-0.46838696515
-0.42068182612
-1.15591209666
1.28119769907
0.758798300845
-0.843995905442
-0.097604153347
0.538236187134
-0.615949934448
0.295826498022
0.0939046977574
-0.670520590086
-0.396571647539
-0.217145837333
0.727578314515
-0.179334950809
0.489122488772
0.0133703695692
0.815959110942
0.147332572029
0.154804156138
-0.421035990716
-0.717976465177
-0.587945935469
0.717679439011
-0.0997159835118
0.721932249334
0.504506943179
0.171031259119
-1.63735006601
2.09038381897
0.767810887659
0.279859139811
-1.11616538424
-1.51628403166
0.344682768759
-1.35669853835
1.37675221984
-1.07999715838
-0.0339146986396
-0.717196316622
0.261539801846
0.791624184568
0.130169828404
-0.941404675836
1.71374345572
0.72887805562
-0.57447139408
0.968158638296
0.191888705888
-0.115100995355
0.542242324953
0.615630041044
-0.935772282094
0.26158644669
2.371222308
0.401630051769
-0.352329980505
-0.717293387041
0.000265931215325
0.0923654731513
-0.0880033213163
-0.0565498833149
-1.48434189222
-1.05704119837
-0.0290922332775
0.439666802433
-0.382681751051
0.315898286083
-0.66883325954
-0.990258399169
-0.637024493575
-0.708694868311
-1.65990774497
-0.659805785931
-0.0791309411418
-2.25381475747
-2.02062707247
0.125346752695
-0.0239294863578
-0.790250328393
-0.552629965957
-0.267329580827
0.148648911047
0.255634018738
-0.322920304482
0.354002153787
-0.0499228986909
-0.0449973076318
-0.623698036734
-0.722021621011
0.328771084159
-0.496240561273
1.02545209848
0.451625724159
1.13766370539
1.54967788656
-0.518116438626
0.752359008327
-1.31189062683
