-0.828214989615
0.0789758701161
0.788350250546
1.04161053582
-0.728979364839
0.25766529723
-1.1354049559
-0.327881239162
-0.996585510219
-0.171148538765
-1.14073838489
-1.40267549523
-0.879194112098
1.57968996525
-0.203742493929
-0.00687566582473
-0.405984304625
1.46843256594
-0.0693240407137
0.175962290257
-0.021295889117
0.124864190999
0.264874212216
1.05802633084
0.201705608239
-0.770758491871
-0.558656217858
-0.569344578856
-1.29755695507
1.27921989006
0.75522228766
-1.01333205147
-0.157642547307
0.40729380335
-0.761511221808
0.18227030367
-0.0237482706441
-0.723451871127
-0.530074282923
-0.298408521434
0.644112401047
-0.375444878888
0.388669697897
-0.0810289429202
0.815869699187
0.148931585487
0.0387623686454
-0.49493156889
-0.794390482817
-0.835435343667
0.760126995484
-0.180416772648
0.797201858022
0.54192833885
0.178477770223
-1.9503985597
2.32111637015
0.842420018861
0.157261109806
-1.262057496
-1.6539018676
0.283823395469
-1.49684520275
1.38068206503
-1.24638145747
-0.133300329496
-0.768564756941
0.18639358155
0.729147526483
0.0442460621263
-1.03063386186
1.86692908772
0.6887754863
-0.663025292859
0.944257693394
0.230386247424
-0.173983725795
0.579585440773
0.565017108251
-1.02901223273
0.240564849095
2.45485572084
0.373789383654
-0.473053148042
-0.830218996621
-0.0424498520138
0.0685361973253
0.0589840876078
-0.155945378613
-1.69148973691
-1.15638559066
-0.257727188464
0.496687013188
-0.54536938306
