-0.629162253351
0.747450177961
-0.593401117086
2.22404206717
-1.4672481251
1.60228218615
0.598008374649
1.34372816896
-1.78215741447
-0.179839274816
-1.27963164206
0.164874952933
1.11422633517
-1.06093556524
-0.982868615802
-0.949896970613
-0.514115075847
0.241861543005
0.414734540484
1.2977406698
0.13870520669
-0.367241813147
-0.0590976256903
0.965130556335
0.468798241199
-0.299326713246
-0.387779941225
0.0698358595611
-1.85245359832
0.37873939019
0.416579626019
0.522208999607
-0.574259323433
1.08322841637
-1.24031136835
0.348143661365
0.0069426238933
-0.157430962038
-0.0610956761078
0.28770471076
0.294180758659
-1.82750694924
-0.226344653221
-2.62585428434
-0.630672636082
-0.116355678231
-0.470622752552
1.07900481366
1.79097269099
-1.33038951314
1.35815465265
0.087446176903
0.311103680579
3.66091275039
0.887491016851
-0.529248729565
1.06175645683
1.57123685596
0.126742339769
-1.20025008554
-0.743946009215
0.528536689407
-0.683255772841
