0.752015287893
-0.0173445623605
2.40891015745
-0.974768452009
-1.17740177763
0.699612406291
-1.46838462414
-0.382742366013
0.205592791295
-0.771774199353
-0.232472271295
1.12999775908
1.42364654799
0.776038253415
0.0827550361174
-0.892862485486
-0.694860802806
-0.791074524107
-1.0414330079
-0.576491288916
0.351790760486
-0.771335922464
-0.547488529253
1.68576885006
0.290505897443
1.15160354375
-0.0533113761201
-1.02167691134
-0.140284093601
-0.706478771901
-0.238552578244
-0.547908126434
-0.450660431113
0.107317690047
-0.883491223703
1.81111433204
-0.210719464768
0.379985356643
0.29075266169
-0.405656989596
-0.961548742335
0.58244815444
0.526857561677
1.29451288611
0.971139103818
0.584090711602
1.94089320337
-0.889333925597
1.18705613671
0.786352320359
0.964585162163
0.464748607934
-1.2168899503
-1.85789456753
-1.75828693874
-0.292757856984
1.12908056515
1.13850927011
1.67617605976
0.249912575807
0.49036614512
-1.59004574551
-0.446278491832
0.7097744328
-1.31960908921
0.593434151984
0.659661099023
0.299782862705
2.25683542745
-0.868722409259
1.08060926456
0.672156499917
0.571307445694
1.7085995594
-0.548686593667
-0.599607123118
-0.706456792633
0.446737871394
-0.248870648368
-0.431935063084
-1.20733675851
0.036096981808
1.26256135886
0.552465838025
-1.90792884705
1.54268618153
0.685737531474
0.17446061517
0.21845840494
-0.692507478055
