0.458812457971
-1.30432418092
0.11409340697
-2.40491915207
-0.646214152252
0.395389458801
-2.75842641933
0.035194799527
0.859662543011
-1.40439307521
-0.883881088878
-1.21315148088
0.0603799726436
0.0155484528438
0.0495403011707
0.361487900941
-0.454372912205
0.816866911112
1.54604707104
-0.788741198328
0.210771249746
-0.581039694083
1.26018968805
1.31705916361
-2.0868377399
-0.186634162711
-0.983105873573
-0.636322951266
-0.548934866333
0.436629281988
-1.31755797981
1.20310080106
-1.9939083013
0.666548322906
-0.439458335724
-0.647426116721
1.10252346639
0.429502886631
-0.155735860953
-0.800379258907
-1.30559810267
1.80221732999
0.192245992824
1.84138940373
0.149764659625
-0.000277545331409
-0.271696034413
0.423193646404
0.64977245258
0.762372578465
-0.311007513926
0.215143443835
0.492331271278
-2.10638992286
-0.206926472336
0.81067870937
-0.0588934890174
-1.37634789177
-0.575724021924
1.04174123745
0.0710495290869
2.45546439063
0.740265135207
-0.466945480842
-0.366510678624
-0.0868413376334
0.638157974252
1.3532989652
-0.749772515659
-1.77771085572
-0.0587529248016
1.93370701936
-1.28762123023
0.988690093488
-1.0568547084
-0.776245529909
2.10376098821
0.946755966744
1.78795642723
1.28540839614
-0.60701942426
0.166625796369
1.00206683971
1.00497410904
1.14713533769
-0.904504785177
-0.33696988595
-0.634998405107
0.732982236215
0.549212788826
-0.657248223617
-0.337264824323
0.848893447717
-0.684220840385
1.32195693413
-0.828197689865
0.722810643863
0.357967803183
-0.205367458004
0.240507041925
0.602822303908
0.554960919785
0.075559366027
-0.328611031296
0.0236296891482
0.688767367427
-0.0339189108017
0.273889162913
0.0203185716931
-0.367766942035
1.07600183386
0.947861724205
-0.639082757757
0.582469753891
-1.23491541892
0.181955532687
0.858791517396
1.53785297906
1.73944731051
-1.16708472409
