0.497902804928
-1.35411857042
0.14043537818
-2.48026670217
-0.659729942469
0.39667312347
-2.86895474491
0.0151994646937
0.865804504132
-1.4242947514
-0.896740423579
-1.24134139453
0.0593918796794
-0.0037292837934
0.0112138763009
0.379541594322
-0.453915151095
0.825534549938
1.57270596081
-0.805765289005
0.221395516934
-0.589062915793
1.26672460467
1.37153423164
-2.14543931928
-0.163569653948
-1.01630938437
-0.619385644692
-0.567663727954
0.456467350971
-1.35436666987
1.21764639426
-2.03769161891
0.671150491796
-0.407783431948
-0.653461332049
1.1492734271
0.4233032174
-0.182597397974
-0.815870905314
-1.30736453831
1.86172467986
0.156626043013
1.92067628028
0.191797831868
0.0123118973826
-0.258207714338
0.387991863014
0.648182989233
0.795807886397
-0.297807535354
0.196129447217
0.484373933943
-2.15217669845
-0.217483148713
0.819019072352
-0.0916007036225
-1.41291248611
-0.571633932312
1.0507221955
0.0812957946327
2.51525028697
0.747831501025
-0.467761503044
-0.359596153754
-0.0503913117087
0.618160019743
1.36872038708
-0.775166030176
-1.82207014086
-0.0780049064641
2.00296592674
-1.31243501605
1.02566978634
-1.10350022904
-0.808207046319
2.16474139285
0.943546392308
1.81847828745
1.32492727383
-0.607204590639
0.130742796141
1.02044529537
1.03606887638
1.18015878095
-0.916311037281
-0.324926693848
-0.630504017254
0.757288496455
0.561502557506
