0.830236099116
-0.0551221854317
2.40036112164
-1.05401691878
-1.29117137676
0.815865039671
-1.35279075924
-0.52372421277
0.231904677456
-0.791608910662
-0.213301400585
1.05526878393
1.28960315124
0.77192995663
0.084057120049
-0.868154370907
-0.666796432264
-0.742583122038
-0.984058904101
-0.510560853683
0.288655468671
-0.682079593305
-0.606748127657
1.71602374344
0.221571763128
1.24017036749
-0.0837847259244
-0.999652306339
-0.146546723924
-0.683442959786
-0.248899995916
-0.475576771875
-0.419817066715
0.162890044101
-0.824816601416
1.84229329282
-0.241209027586
0.335579019144
0.454003700849
-0.391808902372
-1.04251144437
0.733439205118
0.498420624605
1.35659633433
0.912724226982
0.570243708391
1.96719729672
-0.890396978906
1.16858098556
0.882734105354
0.985289597736
0.472729818035
-1.30353209282
-1.73471877428
-1.75268792286
-0.266942363423
1.09361109763
1.10688568283
1.54666843173
0.289002793823
0.414698303824
-1.54515034491
-0.391895176283
0.688701912123
-1.19824592648
0.515114971273
0.721781526854
0.314645408745
2.22097498619
-0.792864230341
0.918829093988
0.653133305
0.558122863811
1.76986630579
-0.551476752584
-0.570600137347
-0.668907427749
0.59156184875
-0.225745219474
-0.401206871614
-1.26226697635
0.0149140183309
1.19875289274
0.625270897386
-1.92755532864
1.47134434371
0.628842256711
0.232142809922
0.207208238569
-0.629583211796
