0.515989659057
-1.20024061406
0.20052615783
-2.28392163456
-0.569610477968
0.457481952572
-2.63331431026
0.0918132371091
0.904851721487
-1.30425509083
-0.79387394869
-1.11231515498
0.130390190108
0.078578453807
0.10478758221
0.409625127125
-0.377741331312
0.865137501747
1.56326489084
-0.713323008378
0.270203526589
-0.518956301936
1.285291689
1.35649702815
-1.97813477096
-0.111249216441
-0.891831512157
-0.566964474604
-0.461885798697
0.513435908284
-1.22304058915
1.24020003928
-1.88912368434
0.705554804871
-0.375160700172
-0.57761028113
1.12981568949
0.485775903597
-0.123961190415
-0.719732777628
-1.2067494021
1.84531223275
0.252604810877
1.87719949416
0.227862090978
0.0840634289624
-0.184324486416
0.489381723992
0.699670738165
0.808500796636
-0.218578151202
0.288730600316
0.5634799436
-2.00602378087
-0.13375582631
0.863662851207
0.0282980018161
-1.2606373644
-0.481155509471
1.0954639317
0.153197055663
2.46259878483
0.793682348102
-0.391913968146
-0.261683110529
0.01496535256
0.696666136833
1.398539099
-0.648190704775
-1.66693218768
0.0167567025884
1.96770270511
-1.19201814436
1.03849559373
-0.977660986181
-0.699123537852
2.13523245506
0.987752292891
1.81764851609
1.34064342425
-0.534137408958
0.207735102338
1.06424079695
1.05647503022
1.18779736606
-0.812014563951
-0.243393271
-0.535777564019
0.794630234321
0.601290800802
-0.573929029998
-0.260856695281
0.897335190656
-0.59335576777
1.36292456807
-0.758475976133
0.768915891132
0.42039471881
-0.128828521868
0.299242434648
0.652488871767
0.616485360294
0.149018973232
-0.246584703531
0.102486075582
0.748162907519
0.048001244471
0.343764149601
0.102513734643
-0.273030568065
1.11970344466
0.988121443097
-0.55864743689
0.643597432561
-1.15247705685
0.232145361319
0.925721658765
1.56341508051
1.78706764386
-1.08242300801
