0.432869134065
-1.33911750476
0.12514557743
-2.47558243552
-0.591066928882
0.486834645334
-2.99646750926
0.0376758389924
1.06769442987
-1.38488446108
-0.850049474817
-1.26433193925
-0.0347784060032
0.0226640326209
-0.0273701009111
0.338160062287
-0.558712989192
0.934821702657
1.53521452621
-0.774320598853
0.27281853699
-0.583418781124
1.25260842466
1.44085154889
-2.31141498704
-0.151736853882
-0.957399623902
-0.658240514247
-0.517759364134
0.417584806764
-1.47085449254
1.20640258676
-2.03611833838
0.695161938714
-0.384398388737
-0.778830454756
1.16160109635
0.519489168557
-0.135173766809
-0.780669884417
-1.24093979361
1.86852714558
0.134080445949
1.89672012452
0.152299895586
0.0111328674983
-0.321946338731
0.38821055097
0.628735740494
0.880628792163
-0.253971706104
0.159108814719
0.449909926696
-2.16531407979
-0.144832458449
0.747537963052
-0.168226266186
-1.35820366727
-0.709436795377
1.02700306792
0.0439894682037
2.495703458
0.687928559642
-0.455176872336
-0.369425727498
-0.0576225700284
0.597748902467
1.41628835244
-0.735154494168
-1.83237572402
-0.140172411695
2.08108973832
-1.3470410158
1.14530586004
-1.03049078661
-0.758443012518
2.15771136986
0.870912299251
1.80068617667
1.26692260281
-0.725074096907
0.0896929999782
1.00126368756
1.23856477827
1.17109306881
-0.877004417669
-0.341433523871
-0.572864700561
0.902550110302
0.712835464982
